<?xml version="1.0"?>
<opencv_storage>
<cascade>
  <stageType>BOOST</stageType>
  <featureType>HAAR</featureType>
  <height>24</height>
  <width>36</width>
  <stageParams>
    <boostType>GAB</boostType>
    <minHitRate>9.9500000476837158e-01</minHitRate>
    <maxFalseAlarm>5.0000000000000000e-01</maxFalseAlarm>
    <weightTrimRate>9.4999998807907104e-01</weightTrimRate>
    <maxDepth>1</maxDepth>
    <maxWeakCount>100</maxWeakCount></stageParams>
  <featureParams>
    <maxCatCount>0</maxCatCount>
    <featSize>1</featSize>
    <mode>BASIC</mode></featureParams>
  <stageNum>6</stageNum>
  <stages>
    <!-- stage 0 -->
    <_>
      <maxWeakCount>2</maxWeakCount>
      <stageThreshold>6.6445181146264076e-03</stageThreshold>
      <weakClassifiers>
        <_>
          <internalNodes>
            0 -1 2 7.2733283042907715e-02</internalNodes>
          <leafValues>
            -9.9335545301437378e-01 1.</leafValues></_>
        <_>
          <internalNodes>
            0 -1 4 -6.1963208019733429e-02</internalNodes>
          <leafValues>
            1. -9.8684209585189819e-01</leafValues></_></weakClassifiers></_>
    <!-- stage 1 -->
    <_>
      <maxWeakCount>1</maxWeakCount>
      <stageThreshold>9.5321637392044067e-01</stageThreshold>
      <weakClassifiers>
        <_>
          <internalNodes>
            0 -1 0 4.1583612561225891e-02</internalNodes>
          <leafValues>
            -1. 9.5321637392044067e-01</leafValues></_></weakClassifiers></_>
    <!-- stage 2 -->
    <_>
      <maxWeakCount>3</maxWeakCount>
      <stageThreshold>-1.0432784557342529e+00</stageThreshold>
      <weakClassifiers>
        <_>
          <internalNodes>
            0 -1 8 -7.8029513359069824e-02</internalNodes>
          <leafValues>
            9.6428573131561279e-01 -9.8662209510803223e-01</leafValues></_>
        <_>
          <internalNodes>
            0 -1 11 -8.9739169925451279e-03</internalNodes>
          <leafValues>
            9.4472724199295044e-01 -9.5507961511611938e-01</leafValues></_>
        <_>
          <internalNodes>
            0 -1 5 2.3426905274391174e-02</internalNodes>
          <leafValues>
            -9.8772138357162476e-01 8.9842319488525391e-01</leafValues></_></weakClassifiers></_>
    <!-- stage 3 -->
    <_>
      <maxWeakCount>2</maxWeakCount>
      <stageThreshold>-2.4036784470081329e-01</stageThreshold>
      <weakClassifiers>
        <_>
          <internalNodes>
            0 -1 10 5.7946059852838516e-02</internalNodes>
          <leafValues>
            -9.3243241310119629e-01 8.3625733852386475e-01</leafValues></_>
        <_>
          <internalNodes>
            0 -1 3 -2.0830625295639038e-01</internalNodes>
          <leafValues>
            6.9206458330154419e-01 -9.2859280109405518e-01</leafValues></_></weakClassifiers></_>
    <!-- stage 4 -->
    <_>
      <maxWeakCount>3</maxWeakCount>
      <stageThreshold>-1.1282474994659424e+00</stageThreshold>
      <weakClassifiers>
        <_>
          <internalNodes>
            0 -1 12 -3.5071503371000290e-03</internalNodes>
          <leafValues>
            7.1578949689865112e-01 -9.7111910581588745e-01</leafValues></_>
        <_>
          <internalNodes>
            0 -1 7 -9.6100680530071259e-03</internalNodes>
          <leafValues>
            8.2222223281860352e-01 -8.4584426879882813e-01</leafValues></_>
        <_>
          <internalNodes>
            0 -1 9 -1.9618153572082520e-02</internalNodes>
          <leafValues>
            6.8871593475341797e-01 -9.5597261190414429e-01</leafValues></_></weakClassifiers></_>
    <!-- stage 5 -->
    <_>
      <maxWeakCount>2</maxWeakCount>
      <stageThreshold>-9.3412011861801147e-02</stageThreshold>
      <weakClassifiers>
        <_>
          <internalNodes>
            0 -1 1 1.8043082207441330e-02</internalNodes>
          <leafValues>
            -8.8196718692779541e-01 8.3950614929199219e-01</leafValues></_>
        <_>
          <internalNodes>
            0 -1 6 -7.3699086904525757e-02</internalNodes>
          <leafValues>
            7.9138350486755371e-01 -9.3291819095611572e-01</leafValues></_></weakClassifiers></_></stages>
  <features>
    <_>
      <rects>
        <_>
          0 0 10 8 -1.</_>
        <_>
          5 0 5 8 2.</_></rects>
      <tilted>0</tilted></_>
    <_>
      <rects>
        <_>
          0 0 12 4 -1.</_>
        <_>
          0 0 6 2 2.</_>
        <_>
          6 2 6 2 2.</_></rects>
      <tilted>0</tilted></_>
    <_>
      <rects>
        <_>
          0 1 33 2 -1.</_>
        <_>
          11 1 11 2 3.</_></rects>
      <tilted>0</tilted></_>
    <_>
      <rects>
        <_>
          0 5 29 16 -1.</_>
        <_>
          0 13 29 8 2.</_></rects>
      <tilted>0</tilted></_>
    <_>
      <rects>
        <_>
          12 1 24 4 -1.</_>
        <_>
          24 1 12 4 2.</_></rects>
      <tilted>0</tilted></_>
    <_>
      <rects>
        <_>
          22 0 10 4 -1.</_>
        <_>
          22 2 10 2 2.</_></rects>
      <tilted>0</tilted></_>
    <_>
      <rects>
        <_>
          24 12 9 12 -1.</_>
        <_>
          24 18 9 6 2.</_></rects>
      <tilted>0</tilted></_>
    <_>
      <rects>
        <_>
          27 0 6 4 -1.</_>
        <_>
          27 0 3 2 2.</_>
        <_>
          30 2 3 2 2.</_></rects>
      <tilted>0</tilted></_>
    <_>
      <rects>
        <_>
          29 8 6 16 -1.</_>
        <_>
          29 16 6 8 2.</_></rects>
      <tilted>0</tilted></_>
    <_>
      <rects>
        <_>
          31 3 4 18 -1.</_>
        <_>
          33 3 2 18 2.</_></rects>
      <tilted>0</tilted></_>
    <_>
      <rects>
        <_>
          32 0 2 21 -1.</_>
        <_>
          32 7 2 7 3.</_></rects>
      <tilted>0</tilted></_>
    <_>
      <rects>
        <_>
          34 6 2 11 -1.</_>
        <_>
          35 6 1 11 2.</_></rects>
      <tilted>0</tilted></_>
    <_>
      <rects>
        <_>
          34 12 2 6 -1.</_>
        <_>
          35 12 1 6 2.</_></rects>
      <tilted>0</tilted></_></features></cascade>
</opencv_storage>
